34 128
34 0.035201512 -0.01645179 0.16079663 -0.092843905 0.063100286 -0.059748657 -0.06012359 -0.025082607 -0.017776834 0.115495004 0.19598588 -0.098054565 -0.14591683 -0.14739394 -0.096818544 -0.08423394 0.15805435 0.16409755 -0.11780701 0.014779664 0.1091929 0.086405456 0.21740301 0.12815937 -0.17590718 0.0599608 -0.16946077 -0.010799435 -0.055393785 -0.09030304 -0.19687428 0.07871899 -0.1161131 0.03642611 -0.10458539 -0.061145503 0.22137687 -0.052064322 0.2159755 -0.016373398 0.03207143 0.053722877 -0.08748281 -0.19983156 -0.1437801 -0.023670653 0.09039652 -0.15565114 -0.13975789 0.009523464 0.11668484 -0.11743628 0.199928 0.17872873 0.052384727 0.013638838 0.060889658 -0.030787937 -0.1601455 0.1385599 0.15928674 -0.015457029 0.086339526 0.06674948 0.060398463 -0.17349726 0.036573056 0.082464874 -0.02623275 -0.12088962 0.1050802 0.03206949 -0.059785064 -0.04348667 -0.13038999 -0.12185381 -0.07526576 -0.03476971 -0.1783226 0.22036746 0.08006203 -0.041805025 0.04958625 0.099186085 0.06732292 0.14231275 0.114109546 -0.068104886 0.009247956 0.19235654 -0.09346377 -0.08318273 -0.06393732 -0.051518574 0.2030407 -0.10970475 -0.16129734 -0.19875504 0.03564052 -0.12306956 -0.07662239 -0.09396327 0.0055855107 0.07241328 0.06393087 -0.16644834 0.0027856638 0.03289339 0.121577345 -0.20531715 -0.030904362 -0.094986424 0.12840736 0.12426779 -0.052422017 -0.056716874 -0.0037736935 0.17941757 0.10321221 0.093258776 -0.058379725 -0.113821834 0.0010294603 0.04503546 0.0111104585 -0.12306601 -0.0834206 0.0124906
1 0.09308605 -0.04487442 0.20904264 -0.04270759 0.011006556 -0.11348619 -0.036668275 -0.032096367 -0.10190332 0.08923152 0.21115245 -0.19602679 -0.027888773 -0.1499519 0.0037925965 -0.19800194 0.0005831007 0.06344765 -0.05628734 -0.0704382 -0.009773406 0.041183073 0.0026519618 0.119257875 -0.21156849 0.073226936 -0.08751097 0.087343365 0.012149259 -0.018804254 -0.2679434 0.2093198 -0.076147035 -0.0011160242 -0.003318082 -0.053049535 0.1880575 0.15517402 0.09802744 -0.038332313 0.12994951 0.056964647 -0.09137154 0.03490628 -0.027168399 -0.08196945 0.061417412 -0.23806384 -0.052306633 0.11718263 0.23999418 -0.06794973 0.100189716 0.016608479 0.014190078 -0.06600536 0.12420111 -0.08420032 -0.16381176 0.098874785 0.18029337 -0.08219948 0.1701433 -0.00982173 -0.0045627085 -0.17845142 -0.06646235 -0.0053667836 0.059265763 -0.18968266 0.08757368 0.03909332 -0.1294395 -0.026686404 -0.04987771 -0.10892242 0.040261097 -0.0966969 -0.08411016 0.19988741 -0.035069235 -0.067736454 0.09129569 -0.04341563 0.03323964 0.12219953 0.18147472 -0.030528868 0.077230506 0.1992183 -0.13151541 0.049161486 0.0054127835 0.060487065 0.03321582 0.052240986 -0.17391062 -0.2892791 0.017526925 -0.08402146 -0.06252007 -0.05487489 0.012070318 -0.022403987 0.029029347 -0.13869959 -0.04321616 -0.037113912 0.0645195 0.041266903 0.04359855 -0.015856521 0.20825082 0.08772929 -0.12582928 -0.017353998 -0.030105883 0.20059176 0.08470562 0.22205868 0.05729615 -0.1221231 -0.05140278 0.06904477 0.072862424 -0.13403054 -0.11900209 0.1215715
33 0.029703747 -0.016177677 0.1625091 -0.11510435 0.080375634 -0.054132666 -0.06611439 -0.03520456 -0.011176947 0.12783462 0.19948836 -0.08098131 -0.16584878 -0.15398557 -0.10157145 -0.07367035 0.1765108 0.1818616 -0.12476686 0.032437228 0.12409904 0.092752755 0.2424369 0.1332517 -0.18048248 0.06366017 -0.18560512 -0.024849415 -0.056477144 -0.10133861 -0.19754048 0.06629708 -0.12489434 0.048075527 -0.118222564 -0.060502525 0.233706 -0.073124014 0.2407517 -0.0065263147 0.035084724 0.052215878 -0.08177863 -0.22956686 -0.16699487 -0.0098232385 0.10240007 -0.16588488 -0.15514798 -0.015493359 0.11902092 -0.124472626 0.22148131 0.19953336 0.055175148 0.03114183 0.052224178 -0.023630232 -0.1577626 0.13895343 0.16910595 -0.012579078 0.08225781 0.09200622 0.06666038 -0.18178955 0.057286583 0.09715041 -0.039441496 -0.11816725 0.110332236 0.028687606 -0.05258434 -0.04181537 -0.14715424 -0.12327411 -0.10301321 -0.031752247 -0.18971081 0.23555315 0.10376738 -0.045903068 0.04347883 0.11948977 0.07753597 0.14821182 0.106695265 -0.074306 0.004728718 0.19288538 -0.096901044 -0.09634199 -0.07683669 -0.06665031 0.22280172 -0.13594532 -0.1643191 -0.19701178 0.040051553 -0.14271538 -0.07034407 -0.0956573 0.009072868 0.08056978 0.06338938 -0.16783987 0.015489062 0.033869777 0.14016508 -0.23650917 -0.03905311 -0.094162494 0.123972975 0.120138586 -0.0467125 -0.07128698 -0.0091128955 0.18199399 0.11089101 0.0834235 -0.074666314 -0.10847998 0.00069054146 0.054677695 -0.006125216 -0.12654082 -0.08000827 -0.0015446818
3 0.047263533 -0.019304829 0.18758303 -0.075460605 0.04395149 -0.084378935 -0.06900595 -0.0366416 -0.05060196 0.10103317 0.19479364 -0.12582204 -0.101609334 -0.15344349 -0.0591652 -0.1249746 0.08769831 0.12278544 -0.09639118 -0.011738152 0.059226032 0.0711991 0.14125128 0.1310287 -0.18957917 0.08345653 -0.13513796 0.026141923 -0.039554544 -0.0640315 -0.22324963 0.11489759 -0.116172835 0.034942325 -0.05500913 -0.058131058 0.20346586 0.014778914 0.18126252 -0.012195516 0.06117982 0.049722157 -0.084332 -0.09928711 -0.10803398 -0.03613589 0.08956572 -0.18339439 -0.1147471 0.02100431 0.16693613 -0.10690653 0.16016085 0.12871209 0.03238482 -0.01036648 0.07422437 -0.04810407 -0.16566636 0.12429427 0.16288348 -0.040696092 0.12909372 0.04969294 0.03848045 -0.17101018 0.0049714306 0.05162731 0.015939442 -0.1496656 0.093076825 0.018938137 -0.09382818 -0.04739348 -0.10791031 -0.107942894 -0.04162795 -0.06388747 -0.13966098 0.20289154 0.03378936 -0.047837637 0.08241832 0.050849594 0.04416407 0.12905921 0.11659301 -0.04272598 0.022249643 0.17992046 -0.101427995 -0.02975616 -0.03641285 -0.0019181094 0.14263728 -0.06686588 -0.16799107 -0.22084348 0.046344645 -0.11908113 -0.07131833 -0.08439743 0.011050969 0.048792124 0.039083328 -0.15206258 -0.004735219 -0.0021301983 0.10307615 -0.122315295 -0.0053347372 -0.07419503 0.15806982 0.10333448 -0.07416812 -0.042595703 -0.020378584 0.17773373 0.09885007 0.124610566 -0.021559658 -0.110884614 -0.0150271645 0.06438883 0.019419549 -0.14149326 -0.09571499 0.04289978
2 0.07755467 -0.054003928 0.19045247 -0.05658783 0.014794682 -0.099630766 -0.04584717 -0.034226373 -0.09840872 0.08680481 0.2052183 -0.1714896 -0.059003472 -0.144866 -0.0050273547 -0.18584928 0.027701935 0.082944855 -0.06517958 -0.064159505 0.00065607677 0.038200907 0.033368967 0.1297527 -0.19631751 0.06722363 -0.09503802 0.05824713 -0.00027587393 -0.036547557 -0.25669613 0.18006721 -0.072647855 -0.000106427295 -0.014752916 -0.046849985 0.18746962 0.11529993 0.11033714 -0.037203178 0.11625996 0.05499046 -0.0969955 0.0037070978 -0.040152855 -0.08477699 0.05865184 -0.22511615 -0.053171184 0.10202522 0.21884061 -0.07828007 0.12285601 0.044339962 0.015390215 -0.04444969 0.10070259 -0.07949324 -0.1563308 0.120083325 0.17792237 -0.06064867 0.15324686 0.012896951 -0.010417628 -0.16594829 -0.04936179 0.012025716 0.043081302 -0.1804571 0.10027608 0.026632337 -0.11155629 -0.03886177 -0.062406477 -0.10092238 0.013756391 -0.09008238 -0.088703446 0.20344524 -0.0144354785 -0.06758714 0.09662259 -0.010949765 0.029600756 0.11505699 0.16702157 -0.035979956 0.06841971 0.18538976 -0.122052036 0.03353689 -0.0010886263 0.043873932 0.06638252 0.034131516 -0.17246956 -0.263646 0.02122002 -0.095422834 -0.056667477 -0.05516132 0.004238521 -0.0031627556 0.04299968 -0.13261467 -0.025630148 -0.02653707 0.0736136 -0.002921091 0.037226927 -0.02148119 0.19558729 0.09708774 -0.116601825 -0.035077427 -0.026981458 0.18617725 0.09049449 0.21214953 0.0410045 -0.11718343 -0.045857336 0.066090435 0.061923906 -0.12929147 -0.11016609 0.099350795
4 0.08651448 -0.04529248 0.20492291 -0.054580808 0.02219827 -0.09100737 -0.05634256 -0.047658566 -0.0968881 0.085779384 0.19680685 -0.1856742 -0.06555826 -0.14265393 -0.014518863 -0.18432589 0.021436986 0.07022499 -0.07707251 -0.065801546 0.00844687 0.04789567 0.047074135 0.13343267 -0.20564099 0.08187006 -0.10170028 0.0600353 -0.012118173 -0.040793244 -0.2616035 0.18504484 -0.08283222 0.011088138 -0.01008123 -0.05613804 0.1991715 0.120407596 0.11981156 -0.023675775 0.10679859 0.0427955 -0.095466316 0.0026563155 -0.054927193 -0.07384385 0.07456114 -0.22469483 -0.07401718 0.08969236 0.21079968 -0.08013765 0.11953176 0.05230695 0.016240109 -0.045988172 0.1096092 -0.079766974 -0.16944106 0.114538945 0.18052371 -0.06892475 0.16882385 0.017714541 -0.0008134064 -0.16893375 -0.041965194 0.01027735 0.037449326 -0.1845864 0.095649116 0.036137626 -0.11448713 -0.036478493 -0.066052295 -0.09628751 0.008280737 -0.08869376 -0.10377395 0.18679833 -0.009844825 -0.058634285 0.094841294 -0.023125742 0.021973861 0.123971015 0.15439816 -0.028567333 0.05025797 0.19233489 -0.122531876 0.0354053 0.0003314818 0.037912447 0.06888716 0.022308128 -0.18210064 -0.26626194 0.022132445 -0.099745266 -0.051216125 -0.06490256 0.008125612 0.0055461917 0.038762912 -0.1476899 -0.02850468 -0.02274492 0.083228424 -0.008761362 0.019318018 -0.036189582 0.20310585 0.086311474 -0.114099026 -0.022833517 -0.035729833 0.20005687 0.08947311 0.20477201 0.050255954 -0.119234964 -0.044311147 0.07697547 0.06357876 -0.12867224 -0.114930816 0.11132328
32 0.038707662 -0.015437788 0.17027804 -0.09696954 0.06536288 -0.061607305 -0.07576396 -0.036605626 -0.0141991805 0.11180606 0.19056147 -0.11897026 -0.13604821 -0.147742 -0.08569678 -0.093756065 0.12498398 0.14670831 -0.10043209 0.014644967 0.09501622 0.07969589 0.19196862 0.12660952 -0.20130515 0.08066242 -0.15762642 -0.005937071 -0.046254087 -0.077164605 -0.20920838 0.089917436 -0.1401337 0.04879097 -0.08073435 -0.048245266 0.21992306 -0.011817035 0.2219764 -0.025847055 0.039060004 0.05440334 -0.079536654 -0.16864453 -0.122765236 -0.025677074 0.09897077 -0.17723316 -0.14358096 0.005012376 0.13315907 -0.12518495 0.19254097 0.17297265 0.054146226 0.0032879666 0.0627464 -0.022438249 -0.17025013 0.11561849 0.15527439 -0.029993037 0.11402584 0.061501008 0.06453998 -0.16529913 0.022585401 0.06992946 -0.009516818 -0.13187563 0.09888526 0.024155393 -0.0767796 -0.03490408 -0.13488501 -0.11471322 -0.072016954 -0.03813111 -0.16935802 0.22778757 0.06517843 -0.04745232 0.058147546 0.077819146 0.064794764 0.119939804 0.12184885 -0.062402032 0.016171763 0.17954718 -0.09258152 -0.076559424 -0.06908877 -0.044049792 0.19253138 -0.10525013 -0.17371161 -0.2021407 0.037024893 -0.12630168 -0.07832981 -0.09143513 -0.0029490893 0.06971697 0.051233713 -0.1529013 -0.0049178437 0.013480572 0.10878279 -0.18226661 -0.03360892 -0.08896881 0.13958633 0.1083175 -0.06554972 -0.046776 -0.0123814875 0.18591884 0.11413456 0.10766418 -0.04339964 -0.10350296 -0.012309473 0.063870326 0.017601822 -0.13897589 -0.07711586 0.028255703
14 0.07955664 -0.028597618 0.20108856 -0.06311939 0.029019527 -0.101613075 -0.06163683 -0.030777328 -0.07851359 0.09147153 0.1938157 -0.16739799 -0.073197186 -0.15283655 -0.018859524 -0.16580719 0.044814073 0.09654276 -0.07987871 -0.033404924 0.031845894 0.052852243 0.080651715 0.12765695 -0.2069407 0.0845637 -0.114440195 0.050900314 -0.006263827 -0.04623798 -0.26353002 0.17310579 -0.09564552 0.015539802 -0.027542088 -0.051783208 0.20518556 0.10014471 0.13739407 -0.023898324 0.091637515 0.05430439 -0.08824685 -0.028612293 -0.065098524 -0.055919398 0.07028606 -0.2177573 -0.08704773 0.07999979 0.19641688 -0.08563375 0.14522642 0.08515594 0.022696044 -0.027058952 0.095582604 -0.057680223 -0.16888213 0.1077118 0.16782315 -0.05836405 0.1607669 0.019603444 0.015969092 -0.17154777 -0.024242554 0.019301513 0.032586616 -0.17519255 0.092974074 0.030402025 -0.11144249 -0.038597006 -0.08233549 -0.10171829 -0.013752109 -0.084845915 -0.117961444 0.20425603 0.0054247444 -0.06513881 0.09162979 0.004656035 0.040062323 0.11650235 0.15515712 -0.034411404 0.05225106 0.18400978 -0.12154129 0.004533924 -0.012834425 0.030064642 0.08818792 0.002963694 -0.17549515 -0.25265738 0.037651125 -0.1150682 -0.07149076 -0.069707766 0.016141912 0.019716682 0.037732266 -0.14989969 -0.012563697 -0.022937821 0.07659617 -0.04504165 0.010312504 -0.043641225 0.1837384 0.092515185 -0.105043165 -0.037205465 -0.020300228 0.19295642 0.10178011 0.18989527 0.023009116 -0.12218439 -0.03346332 0.06501422 0.052077312 -0.14206435 -0.10231848 0.08926635
24 0.026650628 -0.0021126491 0.16160403 -0.11380233 0.08508723 -0.04599499 -0.08633231 -0.037141338 0.014879954 0.13370782 0.19482772 -0.09561891 -0.1587533 -0.15462478 -0.115677364 -0.07053934 0.16546498 0.17874874 -0.12746044 0.036512975 0.12215199 0.09195006 0.24958669 0.12812738 -0.20674598 0.075915 -0.19124924 -0.035290822 -0.06645148 -0.091296144 -0.20184883 0.066811934 -0.15878056 0.055452287 -0.10736097 -0.054529075 0.22415459 -0.06327237 0.25726378 -0.017971013 0.013879113 0.056528084 -0.088655524 -0.23605119 -0.15728329 -0.012792784 0.10519676 -0.15952316 -0.17358433 -0.006211721 0.11287411 -0.13267413 0.22826503 0.20352472 0.056892637 0.03205397 0.05442567 -0.0042088125 -0.1703898 0.13924095 0.147967 -0.005656994 0.089336805 0.088774584 0.08830964 -0.18076043 0.05537854 0.09031347 -0.025759019 -0.11825178 0.096050814 0.036965344 -0.05571816 -0.04415076 -0.1587705 -0.13271974 -0.09238212 -0.0085393805 -0.20154354 0.2503157 0.09750295 -0.045052126 0.047502864 0.11965852 0.076560706 0.12723286 0.117152676 -0.070095785 0.0012638079 0.18432258 -0.08549401 -0.120229706 -0.09839613 -0.079315394 0.23234667 -0.15683863 -0.17295106 -0.19725908 0.03869914 -0.14802203 -0.08377391 -0.11423796 -0.0044261175 0.09831935 0.058484737 -0.17194477 0.00630463 0.027853167 0.13218528 -0.23801596 -0.05103753 -0.1095781 0.12865531 0.1277569 -0.07091538 -0.05877958 -0.021466376 0.18954512 0.12796544 0.094464764 -0.07464482 -0.10911087 0.008462107 0.061684683 0.0052714795 -0.13136035 -0.07801638 -0.0017369466
28 0.050898943 -0.00987781 0.16457155 -0.09145924 0.062961206 -0.059178133 -0.07125108 -0.039305132 -0.016000073 0.11404762 0.18924727 -0.120608024 -0.12905885 -0.14168619 -0.070844635 -0.09036433 0.11379608 0.14530984 -0.10617369 0.011177488 0.09314756 0.086573474 0.18655923 0.1301423 -0.20087865 0.08292758 -0.15677677 -0.004980556 -0.04245629 -0.06444154 -0.21999747 0.09562795 -0.124358244 0.042310216 -0.08904476 -0.059366938 0.22064124 -0.0051584775 0.21578996 -0.02530141 0.036313698 0.05462644 -0.07669897 -0.1640952 -0.13286895 -0.027639292 0.0870053 -0.17982323 -0.13988987 0.009372585 0.14824781 -0.1277698 0.18952067 0.16305335 0.045936868 0.010857877 0.07428236 -0.031359926 -0.17552556 0.1145524 0.14768836 -0.0279288 0.10551732 0.0545578 0.061817776 -0.17404835 0.028314792 0.06254857 -0.006937583 -0.13188851 0.09532195 0.04503658 -0.078662425 -0.030192748 -0.13671716 -0.1085755 -0.066557445 -0.027228827 -0.17447512 0.22407395 0.064550154 -0.045993943 0.05368542 0.06585517 0.059825663 0.117154166 0.123510785 -0.061369687 0.0140888775 0.1877512 -0.097972944 -0.07173117 -0.0736607 -0.047769845 0.18943125 -0.105118275 -0.17217948 -0.20628719 0.040411606 -0.13136587 -0.06802688 -0.09712878 0.005778487 0.061224304 0.044565413 -0.15952265 0.003953187 0.02106731 0.10667656 -0.16915204 -0.02093272 -0.085372224 0.13758485 0.11423685 -0.06829762 -0.04300928 -0.028052839 0.18900347 0.11727528 0.12099379 -0.035308868 -0.111438625 -0.008950684 0.06323202 0.025718179 -0.14002973 -0.094018586 0.030288521
9 0.05633808 -0.024147615 0.173724 -0.060678113 0.037681498 -0.078298606 -0.047981028 -0.03532005 -0.056493774 0.10410138 0.19692561 -0.14932896 -0.08529093 -0.14926498 -0.041243747 -0.13005875 0.08523799 0.115525045 -0.08391135 -0.0150026735 0.043427393 0.07329834 0.105986126 0.121819064 -0.20201461 0.061384212 -0.13597435 0.023702007 -0.032595 -0.05251845 -0.23198093 0.13595021 -0.10701103 0.016754648 -0.0468735 -0.04946287 0.20552881 0.047987793 0.16286749 -0.030526537 0.07852673 0.05135758 -0.076912165 -0.08141827 -0.08593749 -0.04467547 0.071424365 -0.19806415 -0.09800635 0.06139434 0.17961246 -0.09216917 0.1622178 0.09657276 0.037347037 -0.02262624 0.0825924 -0.042431753 -0.16230318 0.11859044 0.15818648 -0.04714467 0.12917422 0.03642778 0.030334977 -0.17811564 -0.013059603 0.03782841 0.01740728 -0.15223247 0.09699811 0.03688366 -0.09861412 -0.031126136 -0.09544094 -0.115202546 -0.02122113 -0.06388702 -0.1356538 0.21913232 0.036136564 -0.050052427 0.07170092 0.039759107 0.054703746 0.12568428 0.148744 -0.041995943 0.043398242 0.1848303 -0.1071764 -0.027917514 -0.041046962 0.0020808137 0.13192894 -0.029609447 -0.17001991 -0.22946057 0.025691973 -0.11254579 -0.062470842 -0.08378381 0.011911281 0.03738995 0.04523403 -0.14620201 -0.006077563 0.0066123134 0.09195185 -0.09518764 0.007825397 -0.04957984 0.16661489 0.10551335 -0.094742894 -0.040791288 -0.015713701 0.18373029 0.09332189 0.16168188 0.0016952076 -0.106361516 -0.023447461 0.05685583 0.05156881 -0.13026465 -0.090001546 0.06723973
7 0.14296037 -0.0818083 0.20457594 0.003371347 -0.011934803 -0.1364393 -0.026351359 -0.010681008 -0.12831792 0.0783762 0.21089707 -0.28214398 0.030486535 -0.12648332 0.061621603 -0.2524072 -0.07330969 0.020056471 -0.04829157 -0.09998767 -0.040494233 0.026310034 -0.11364223 0.11363795 -0.2534194 0.04156765 -0.06781533 0.11286973 0.0272131 0.022357725 -0.3119023 0.26423985 -0.034911826 -0.02526496 0.043020003 -0.039289437 0.17737968 0.26228473 0.045584697 -0.05069304 0.1512591 0.057212163 -0.08023914 0.14341807 0.026724448 -0.12875523 0.037264656 -0.2570233 0.013618059 0.21782967 0.26720995 -0.03365758 0.08021495 -0.07167027 0.0019790758 -0.08481587 0.15960936 -0.1009953 -0.1748935 0.10781676 0.18411161 -0.10839337 0.19333836 -0.06259091 -0.014503002 -0.18345417 -0.12514585 -0.053816017 0.0938844 -0.21522094 0.09956839 0.06281719 -0.16609325 -0.019587975 0.002248016 -0.14487623 0.098383196 -0.124109834 -0.037722412 0.23233786 -0.072113805 -0.10534006 0.10670924 -0.08694433 0.014193327 0.113377035 0.24991135 -0.009737698 0.12870671 0.2037636 -0.12541202 0.09485636 0.020746646 0.11587189 -0.023858802 0.1555515 -0.21247916 -0.34964487 -0.038762674 -0.063086644 -0.070280984 -0.04792893 0.005863234 -0.06296909 0.0012055219 -0.11915049 -0.05669233 -0.05875783 0.021767769 0.16309394 0.064493 0.025858842 0.2585524 0.09742457 -0.19114795 -0.00598893 -0.05098644 0.22899507 0.08467449 0.3039987 0.10214198 -0.1367459 -0.0800011 0.07752621 0.1399765 -0.10891537 -0.11405994 0.20483631
30 0.037678495 -0.013873782 0.14780074 -0.09739454 0.08072262 -0.053330757 -0.07994976 -0.028167333 -0.0021663029 0.12416577 0.17510495 -0.09960289 -0.146589 -0.15955944 -0.10325268 -0.07610848 0.1706759 0.17475939 -0.1159226 0.034450315 0.119562484 0.0839687 0.2375609 0.13147402 -0.17882471 0.066659376 -0.1784939 -0.031206967 -0.046851624 -0.09503207 -0.19154297 0.0778332 -0.13346207 0.053687077 -0.111715704 -0.061166152 0.21908589 -0.062582865 0.23018654 -0.0053298324 0.03164292 0.04654231 -0.078914024 -0.210895 -0.15889 -0.015871529 0.093408525 -0.15601449 -0.15978265 -0.00806063 0.10728362 -0.13313156 0.21634479 0.2021898 0.043803453 0.02712367 0.043771893 -0.021271804 -0.16443339 0.13438289 0.15769339 -0.0028105197 0.09568866 0.0851989 0.06914257 -0.18297909 0.04976231 0.07970719 -0.018045194 -0.117050275 0.09246118 0.030236559 -0.057293624 -0.037879784 -0.14958715 -0.12437371 -0.09968593 -0.020437246 -0.19383419 0.23283476 0.07916915 -0.038982745 0.0467085 0.09641869 0.08197568 0.1388295 0.10151267 -0.05841821 0.00252053 0.18610872 -0.08730139 -0.10536086 -0.08263107 -0.06049298 0.20982756 -0.13563442 -0.14909934 -0.18203355 0.040175013 -0.12872306 -0.063805394 -0.10370076 -0.0046915193 0.07369953 0.058478422 -0.16883181 0.003426268 0.034054905 0.1327536 -0.21764092 -0.04491274 -0.10207332 0.13157925 0.11943231 -0.059024233 -0.06478465 -0.009327397 0.17201415 0.11394049 0.08681233 -0.072166234 -0.11502862 -0.0054782853 0.054007694 0.0050385073 -0.12608963 -0.0764806 0.0054296316
6 0.13782309 -0.07212707 0.19174485 0.014579609 -0.0047527724 -0.12899165 -0.019842837 -0.009623776 -0.13128003 0.0825286 0.2136024 -0.29439119 0.03635977 -0.13696916 0.06982108 -0.25693813 -0.07303978 0.004529882 -0.055522088 -0.10840773 -0.055760317 0.02677034 -0.12026597 0.11089725 -0.26553515 0.04703836 -0.059224922 0.12499454 0.031080611 0.026768576 -0.32255232 0.26927465 -0.053944025 -0.027521335 0.037033435 -0.03497958 0.17416276 0.26820624 0.052062314 -0.05776391 0.15948597 0.052940123 -0.07791239 0.14658533 0.02405101 -0.13165115 0.03484499 -0.26269993 0.013846768 0.21551433 0.2828546 -0.046844475 0.08547104 -0.07442883 0.0068387976 -0.09949563 0.16832912 -0.10826932 -0.18305768 0.106925756 0.17851636 -0.11075682 0.19751874 -0.064526 -0.015704822 -0.18400896 -0.12670521 -0.05067759 0.08598063 -0.22300589 0.09987734 0.067887776 -0.17563935 -0.015398247 0.0055099977 -0.1480084 0.1091112 -0.13219097 -0.035860807 0.23714596 -0.07450722 -0.10705583 0.10090362 -0.09519496 0.012987152 0.107346274 0.25930044 0.0036255508 0.13915086 0.19624275 -0.11496662 0.08771536 0.02715758 0.1175362 -0.027315516 0.15314503 -0.21828996 -0.35957292 -0.042912446 -0.061727744 -0.063675225 -0.05381767 0.00733828 -0.05398426 0.014348626 -0.13136454 -0.05525433 -0.068157464 0.028885426 0.1736749 0.07049411 0.02956118 0.2726219 0.09916042 -0.18732373 0.010027304 -0.056115393 0.23978174 0.09404702 0.3037191 0.112781815 -0.1286941 -0.070935294 0.09027842 0.15045474 -0.11849674 -0.10530128 0.20323007
8 0.07890749 -0.03649397 0.20287225 -0.051747233 0.025522446 -0.098757125 -0.049627606 -0.042154346 -0.07380221 0.088280864 0.19470687 -0.16336325 -0.066199996 -0.1499459 -0.01935692 -0.15531115 0.03879255 0.08313469 -0.080848925 -0.04843582 0.025046831 0.06533579 0.07146815 0.13093285 -0.19982126 0.085582234 -0.10196367 0.05971206 -0.008581981 -0.05107854 -0.25452307 0.16060929 -0.08616324 0.013193722 -0.03557827 -0.045832466 0.20600611 0.08612516 0.14566542 -0.027014425 0.08743723 0.050396755 -0.08947952 -0.03101306 -0.06401103 -0.057898242 0.077384636 -0.2169011 -0.085788935 0.07164555 0.20827208 -0.08096664 0.12927203 0.06946789 0.019465743 -0.03890989 0.10803933 -0.06960511 -0.17014715 0.10687023 0.16795895 -0.05985229 0.15314567 0.027227003 0.013269599 -0.17062062 -0.02348825 0.024772156 0.03530425 -0.16285682 0.10331081 0.04410469 -0.116436355 -0.030076347 -0.0718356 -0.096216366 -0.006666257 -0.07677765 -0.10540887 0.19517834 0.0041147587 -0.06042007 0.093651325 -0.0015945465 0.03011236 0.12530659 0.14513771 -0.043968458 0.044177596 0.18857487 -0.11519205 0.017573588 -0.004262609 0.027005693 0.09102823 0.0010906945 -0.1785828 -0.2669517 0.03711952 -0.1066417 -0.058856484 -0.060198493 0.010046348 0.0154993 0.039170805 -0.14888653 -0.018650781 -0.01618554 0.0868702 -0.031145029 0.018451702 -0.04175593 0.17806613 0.09929398 -0.09739395 -0.03379051 -0.026555797 0.19279832 0.09335705 0.18338333 0.03298948 -0.1173291 -0.033072215 0.068674974 0.058393348 -0.137955 -0.111572854 0.088633016
26 0.025895506 0.0052147657 0.15216115 -0.11604335 0.07204712 -0.04486727 -0.08810891 -0.04600804 0.018755704 0.1337032 0.18337464 -0.09962142 -0.15345478 -0.14683786 -0.115395546 -0.058030084 0.15214884 0.17371817 -0.12088642 0.028260347 0.12643178 0.10605189 0.25570452 0.13504104 -0.19738697 0.0821632 -0.18237124 -0.041103102 -0.0539003 -0.085445076 -0.21126547 0.058276102 -0.16602337 0.054905146 -0.10692069 -0.045965247 0.2310952 -0.055044714 0.2644804 -0.022795722 0.011992518 0.047222525 -0.07738018 -0.23250483 -0.15693541 0.0024586024 0.09255264 -0.16746897 -0.173292 -0.023419991 0.104728535 -0.13852887 0.22267066 0.2086132 0.056470957 0.03288031 0.049551234 2.6301284e-05 -0.1779234 0.12030873 0.14112946 -0.007992949 0.09393968 0.085704416 0.096635625 -0.17834926 0.05179668 0.08040226 -0.022795454 -0.1259901 0.09461037 0.037284832 -0.07166776 -0.032132857 -0.17137143 -0.12863459 -0.10724756 -0.00047901497 -0.19763778 0.2506672 0.09850997 -0.037272647 0.045292996 0.12187018 0.08230931 0.12338344 0.1074787 -0.074531026 0.0031866834 0.1776819 -0.0847565 -0.11895809 -0.09413653 -0.07316301 0.23983476 -0.15935594 -0.17485715 -0.18093087 0.03921746 -0.1436672 -0.07991845 -0.104699746 -0.0055474113 0.105126955 0.049470905 -0.17076825 0.013212574 0.028214818 0.11908635 -0.243274 -0.05080688 -0.11851155 0.121246204 0.12673761 -0.06435282 -0.04939917 -0.01640595 0.19391578 0.12894154 0.08603471 -0.070251696 -0.10411829 -0.0043162494 0.0698554 0.0031326693 -0.14969456 -0.08512473 -0.006562788
25 0.03999254 -0.0016417307 0.1641994 -0.10218929 0.069069594 -0.054568738 -0.08267257 -0.033357877 0.0037379826 0.116917446 0.17552274 -0.11701225 -0.13609065 -0.13518685 -0.084655136 -0.090506434 0.121035144 0.16231792 -0.11314605 0.011809331 0.11016026 0.086828105 0.21576412 0.12415206 -0.20708582 0.07862713 -0.15973642 -0.01091106 -0.046052705 -0.07114511 -0.21727042 0.08089807 -0.15137574 0.050422203 -0.09322225 -0.05278222 0.21143347 -0.015712373 0.23710825 -0.026726935 0.020257855 0.058913503 -0.084091775 -0.18628442 -0.13393913 -0.0075989086 0.09494816 -0.17180832 -0.14718695 0.0024764286 0.11346682 -0.1305511 0.20334937 0.18546838 0.060910337 0.025772141 0.048299015 -0.009885468 -0.17864127 0.11908474 0.1464711 -0.012720425 0.106180236 0.07461273 0.08599372 -0.1729572 0.028419547 0.06697903 -0.004411321 -0.13235421 0.0904081 0.045005165 -0.076103434 -0.041082244 -0.14637764 -0.11752958 -0.07710066 -0.010456245 -0.18450738 0.23901904 0.08360102 -0.041945558 0.05661208 0.08891189 0.07418067 0.10651242 0.1254446 -0.07335819 0.010227647 0.16717094 -0.0861313 -0.100156575 -0.08784214 -0.056411114 0.2120569 -0.12519895 -0.18056263 -0.204298 0.034028944 -0.13651197 -0.08374187 -0.10089175 0.0073822583 0.087991595 0.03586477 -0.15792048 -0.00024845815 0.012026933 0.1142364 -0.19371475 -0.044544376 -0.10454343 0.13162908 0.1263142 -0.082097724 -0.036191296 -0.022661107 0.19252282 0.1311141 0.1096776 -0.05384073 -0.09742618 4.898911e-05 0.072156005 0.018935531 -0.14087138 -0.081129685 0.013002255
5 0.119888015 -0.060307905 0.19741721 -0.0012786941 -0.0061018793 -0.12617987 -0.025344934 -0.019813318 -0.1278721 0.082763255 0.20326704 -0.25146985 -0.0007260168 -0.12776466 0.0512107 -0.23416191 -0.044722505 0.028770681 -0.055799697 -0.087559216 -0.035918295 0.039056655 -0.073217094 0.12047669 -0.23465675 0.058612153 -0.06721659 0.11174212 0.017276792 -0.0009989417 -0.29514468 0.23622432 -0.05446703 -0.02159457 0.02092244 -0.04638278 0.17888027 0.22259523 0.07035036 -0.038517088 0.13140878 0.054353964 -0.077067405 0.10625675 0.009039547 -0.10262589 0.037603654 -0.23234624 -0.0070824483 0.18637452 0.24122097 -0.041360512 0.0979658 -0.03857704 -9.872455e-05 -0.072518945 0.13553593 -0.09956768 -0.16415915 0.11195574 0.18392153 -0.09640996 0.17900263 -0.03409198 -0.0071586254 -0.1771555 -0.107629515 -0.038123287 0.072407775 -0.20554982 0.09521528 0.051513385 -0.14994211 -0.029001594 -0.010384661 -0.12924613 0.06482409 -0.10693335 -0.052943673 0.22271831 -0.060086127 -0.09563875 0.0969177 -0.07039906 0.007804588 0.10463428 0.2247463 -0.007850982 0.115094095 0.1916914 -0.12082083 0.069633596 0.016310204 0.098307826 -0.00792368 0.117972545 -0.19910833 -0.32450905 -0.024722632 -0.06702531 -0.07160709 -0.05398298 0.009660764 -0.033902224 0.007809639 -0.12291201 -0.037879076 -0.056523606 0.032274406 0.11979908 0.055184457 0.00837866 0.24531198 0.08877805 -0.16450305 -0.010547887 -0.04768955 0.21955067 0.087288424 0.26134098 0.08411151 -0.124246165 -0.06852272 0.08558999 0.11291805 -0.12433512 -0.102517374 0.16686626
20 0.062380638 -0.03316827 0.17489322 -0.061247893 0.040033232 -0.08424307 -0.058013663 -0.0374466 -0.06633305 0.101323456 0.19486625 -0.15161508 -0.07380104 -0.14911783 -0.024601672 -0.14854088 0.068417884 0.1025735 -0.0772764 -0.03868895 0.03192259 0.06901857 0.08999394 0.12918738 -0.19076063 0.07280644 -0.10996691 0.038118828 -0.025026863 -0.054324396 -0.23726621 0.14381793 -0.087840326 0.02476228 -0.04924988 -0.047594577 0.20487937 0.074547604 0.15373804 -0.030750202 0.079846226 0.040590037 -0.08689924 -0.05756084 -0.07856758 -0.05243487 0.07496887 -0.19531809 -0.087545395 0.07253485 0.17419659 -0.08506953 0.14965482 0.09506282 0.027662696 -0.027899688 0.084550865 -0.057979416 -0.16393661 0.11976519 0.16620867 -0.04690526 0.14233983 0.020426013 0.030086057 -0.16473225 -0.021522768 0.030397244 0.01893296 -0.16334884 0.099194735 0.035893444 -0.092613354 -0.03140918 -0.08841585 -0.10296492 -0.022296907 -0.06733827 -0.122920744 0.20709175 0.014104556 -0.05637926 0.06495091 0.022211563 0.03392319 0.124330364 0.1491744 -0.047189515 0.039415177 0.17841272 -0.10990348 -0.003304394 -0.017166423 0.011781316 0.10777655 -0.0118894195 -0.17345491 -0.2427485 0.027953517 -0.110393964 -0.067948446 -0.08246655 0.013911861 0.025795152 0.031790484 -0.152912 -0.016485976 -0.0031743234 0.08711924 -0.05953395 0.001684857 -0.049193952 0.17561342 0.10306931 -0.10787289 -0.039763767 -0.031912193 0.19055481 0.08816573 0.16975024 0.0059060007 -0.11805897 -0.027214393 0.059514374 0.047130007 -0.13248257 -0.09226877 0.08622302
31 0.05951082 -0.02385559 0.17827037 -0.08457759 0.055209957 -0.08296854 -0.053032536 -0.032502573 -0.050741248 0.10384783 0.20312947 -0.14341012 -0.097974144 -0.15575357 -0.04854077 -0.1260594 0.10624692 0.12583052 -0.09023782 -0.0032801013 0.066604584 0.069852486 0.13991456 0.13621472 -0.1891066 0.0732929 -0.13555107 0.024345828 -0.025485165 -0.06542985 -0.22529386 0.12488876 -0.10443985 0.024697866 -0.07226049 -0.06348986 0.20603529 0.035008658 0.17075914 -0.026628561 0.07320305 0.05127948 -0.08461152 -0.10710229 -0.10115183 -0.03996385 0.08598575 -0.19218953 -0.10400873 0.048938952 0.15918574 -0.093682475 0.17700996 0.12559962 0.029724544 -0.006222451 0.086282864 -0.039485123 -0.16229041 0.11868518 0.16847485 -0.03752419 0.12514085 0.036485285 0.044854045 -0.18086532 0.0039501293 0.037862238 0.011845977 -0.14313632 0.10084196 0.024921622 -0.08684366 -0.033150733 -0.10894081 -0.11375209 -0.042157885 -0.055822875 -0.1505526 0.22768518 0.043667816 -0.054398246 0.060709275 0.05022704 0.060970966 0.14070818 0.12879191 -0.05849759 0.029389031 0.18719663 -0.11742671 -0.040772084 -0.041777235 -0.006228819 0.13210051 -0.05312174 -0.16600096 -0.22090924 0.026853107 -0.118334636 -0.074970864 -0.09002493 0.004206059 0.046447124 0.053244002 -0.15503535 -0.00789468 -0.0041344054 0.099725515 -0.121617235 -0.0011546252 -0.06382814 0.15982941 0.10193682 -0.08352582 -0.055607986 -0.019178282 0.1790228 0.097565904 0.14383106 -0.022665413 -0.1176618 -0.022347586 0.05838664 0.027969461 -0.13465597 -0.09843269 0.051988706
11 0.13056932 -0.07068575 0.19606034 0.004426948 0.004016952 -0.12002615 -0.018650308 -0.026075987 -0.1324048 0.07732062 0.19582039 -0.26788047 0.0049386313 -0.13073568 0.052287754 -0.23787774 -0.060937572 0.029893989 -0.04954857 -0.08676368 -0.027908118 0.03857247 -0.08309957 0.120438136 -0.24561948 0.052680954 -0.06379652 0.11817667 0.016685886 0.010342472 -0.30440542 0.24143258 -0.039930727 -0.020976292 0.02756637 -0.04849634 0.16765282 0.2401004 0.056329627 -0.04076231 0.13300261 0.052223627 -0.08819573 0.12180446 0.016243944 -0.106338315 0.048697308 -0.24135174 -0.011845037 0.19898924 0.24787907 -0.037691 0.09449984 -0.049190167 -0.0015919111 -0.08079028 0.14954099 -0.10460112 -0.16954485 0.0999535 0.18678318 -0.1005231 0.19629185 -0.051520932 -0.018483937 -0.18389317 -0.11290973 -0.036035877 0.08021462 -0.20054415 0.09798736 0.060908664 -0.15023072 -0.01595897 -0.012695792 -0.12480694 0.071528435 -0.11324009 -0.050838668 0.22142008 -0.055425882 -0.09651327 0.0929044 -0.0768656 0.01310158 0.10356448 0.23800747 -0.016889967 0.12313574 0.19229117 -0.11336437 0.07908776 0.021319332 0.10114665 -0.010514084 0.13136524 -0.20455095 -0.33444363 -0.03267479 -0.0752965 -0.06731164 -0.05801025 0.0084153805 -0.050443955 -5.9779748e-05 -0.123442106 -0.044233598 -0.052564517 0.026990868 0.13418068 0.053108364 0.0057768053 0.24550316 0.08950153 -0.17601313 -0.0142215295 -0.03712306 0.22800148 0.083733745 0.2823937 0.09027929 -0.12045429 -0.07294773 0.086109854 0.12244374 -0.121516824 -0.11189978 0.18975063
29 0.04794215 -0.016561156 0.1772685 -0.09072841 0.048401214 -0.07351019 -0.06843477 -0.04323435 -0.032956686 0.1057792 0.18925828 -0.119702764 -0.106792994 -0.13860886 -0.06499797 -0.10787877 0.107228294 0.12719966 -0.08957962 -0.01274171 0.07109615 0.07092812 0.15495084 0.11634262 -0.18688147 0.07352378 -0.14175367 0.004308077 -0.027411595 -0.0687233 -0.21607639 0.11731771 -0.12241561 0.038215507 -0.06564164 -0.049086805 0.1975262 0.008047922 0.17308502 -0.022452911 0.055034786 0.045586564 -0.07419638 -0.128361 -0.1138502 -0.040061377 0.077811725 -0.19048963 -0.11734753 0.031485938 0.15874347 -0.112326935 0.16009766 0.13031174 0.027864577 -0.009001942 0.06502129 -0.033108953 -0.16532132 0.11660594 0.15546657 -0.025880717 0.112248376 0.0430131 0.045628693 -0.17094749 0.011497692 0.052316695 0.009568789 -0.13874824 0.09143628 0.03310373 -0.0878762 -0.042933032 -0.10858177 -0.10966544 -0.05204257 -0.051673584 -0.1549201 0.20838206 0.04761189 -0.04850388 0.06939215 0.056503315 0.06123947 0.11538917 0.11383974 -0.059036836 0.015174156 0.17156918 -0.10157701 -0.051926065 -0.04949178 -0.020713104 0.15387763 -0.069322765 -0.15179011 -0.21295519 0.031771958 -0.11894421 -0.05545771 -0.08004744 0.0035142973 0.052105084 0.050987594 -0.1567717 -0.003274905 0.010773724 0.107603885 -0.12864073 -0.017554782 -0.07242655 0.15533163 0.10396557 -0.079899006 -0.040222812 -0.022073291 0.18058752 0.106909186 0.122318156 -0.017165663 -0.10132073 -0.018826578 0.059931446 0.03219388 -0.12099349 -0.096722044 0.042876247
27 0.04591459 -0.017120799 0.16753119 -0.10028895 0.070600934 -0.057888027 -0.062176842 -0.028905386 -0.015050124 0.10858986 0.18755096 -0.09897585 -0.13412943 -0.14760882 -0.07766408 -0.086561605 0.14880444 0.14741948 -0.11237372 0.013035239 0.09686691 0.07912937 0.19296964 0.12249065 -0.18939431 0.07548793 -0.15937681 -0.017450977 -0.042542364 -0.07822757 -0.20375057 0.08468093 -0.12304216 0.046150483 -0.099964306 -0.058211826 0.20836827 -0.034593713 0.21184525 -0.020174975 0.04159628 0.050252635 -0.0876783 -0.17251782 -0.13186412 -0.032363065 0.08856646 -0.16808766 -0.14572673 0.0014912793 0.1260195 -0.122659504 0.19897246 0.17341667 0.045032434 0.0058616255 0.06271929 -0.022686273 -0.15930338 0.122527 0.15436353 -0.018163217 0.08994815 0.07303571 0.054592308 -0.17943355 0.026028939 0.077078685 -0.022476124 -0.129935 0.10199456 0.029883025 -0.06809536 -0.04253719 -0.13066965 -0.11083768 -0.07907074 -0.039968006 -0.17355852 0.215423 0.06664416 -0.05159266 0.061526038 0.0919171 0.0628687 0.124533445 0.108982034 -0.06388544 0.0184466 0.18481855 -0.103293605 -0.07719709 -0.07305783 -0.044533346 0.18338627 -0.108734004 -0.15060684 -0.19024 0.04032932 -0.13273534 -0.060180962 -0.09805844 -0.001686807 0.06133268 0.054873273 -0.15951611 0.0013468224 0.023320379 0.12808336 -0.17871463 -0.02683936 -0.07721656 0.13531587 0.11364209 -0.06800915 -0.050208963 -0.021375582 0.17346396 0.112995416 0.10272208 -0.04588946 -0.11424059 -0.0005905298 0.06129384 0.0043832473 -0.12840615 -0.07866048 0.018314358
17 0.13466004 -0.072122306 0.19140823 0.0129686715 -0.0132102 -0.13599038 -0.023298856 -0.015346678 -0.14101273 0.08415993 0.20628348 -0.28503296 0.032399915 -0.124475285 0.068879865 -0.24933313 -0.07292587 0.006297834 -0.041657705 -0.09378551 -0.0521376 0.022050899 -0.11772322 0.115192354 -0.25884312 0.052020438 -0.058335006 0.12713914 0.018981887 0.01607579 -0.3147165 0.25373483 -0.042974766 -0.023128659 0.043917656 -0.03704652 0.16145359 0.26076844 0.037991326 -0.049841534 0.15152511 0.060936123 -0.0848731 0.15271768 0.030564118 -0.12457298 0.039352603 -0.24972577 0.009101616 0.21746387 0.27433223 -0.033667024 0.08355736 -0.078295805 -0.0047402633 -0.09210965 0.15920348 -0.10363145 -0.17141017 0.112086624 0.17837702 -0.10482496 0.2020954 -0.05890634 -0.01720264 -0.17613602 -0.128725 -0.05929429 0.09336878 -0.22443491 0.09369628 0.05008979 -0.16505668 -0.026895136 0.0062932367 -0.14071363 0.10431079 -0.13292596 -0.042202506 0.22796486 -0.07856547 -0.09866495 0.10361914 -0.09633589 0.0061391504 0.0983614 0.24862647 -0.0045585535 0.133316 0.1883651 -0.12097053 0.08401198 0.03297576 0.121761315 -0.037160702 0.15790465 -0.21012753 -0.34929237 -0.03237665 -0.05986242 -0.07229905 -0.056236163 0.010569132 -0.05699251 0.00735463 -0.11828319 -0.057845455 -0.060296867 0.023360644 0.17073552 0.06126599 0.026838245 0.26658764 0.085132375 -0.19100457 0.0048472807 -0.042848106 0.22302054 0.09080499 0.2988922 0.10260581 -0.13067448 -0.08388098 0.08856587 0.13898334 -0.1244971 -0.11076628 0.19537151
19 0.048886664 -0.016912209 0.17251934 -0.09336034 0.062453933 -0.0515036 -0.06540067 -0.038143292 -0.02507095 0.11472815 0.18707696 -0.112419486 -0.13934067 -0.15560107 -0.07897677 -0.09763166 0.14036046 0.14947717 -0.109812886 0.013822516 0.09656602 0.08127906 0.19962932 0.13176832 -0.20084435 0.066062644 -0.17011945 -0.011898367 -0.048950586 -0.08493851 -0.20065327 0.09795508 -0.12747051 0.034952458 -0.09567208 -0.06695751 0.22358733 -0.021056922 0.21472985 -0.02113903 0.053457275 0.052785225 -0.082688734 -0.17414978 -0.13166618 -0.030104054 0.09850055 -0.1708212 -0.13715766 0.019477306 0.13656722 -0.12358305 0.20485161 0.16652094 0.038928892 0.018240225 0.06111789 -0.019169085 -0.16657223 0.1372474 0.16101576 -0.025583431 0.10093842 0.074454986 0.05971712 -0.18235302 0.024493389 0.06495684 -0.013231533 -0.14058371 0.10497533 0.032145172 -0.06379222 -0.033711225 -0.13273278 -0.11976775 -0.070498586 -0.04730858 -0.16514586 0.23719543 0.079631165 -0.05030948 0.048270028 0.08555039 0.05997105 0.14041461 0.12309931 -0.05456484 0.022620026 0.18562199 -0.10077096 -0.07363874 -0.0567729 -0.046765756 0.1826656 -0.10163246 -0.16054516 -0.19929253 0.028590618 -0.12671506 -0.07498213 -0.09469337 0.00943475 0.0699888 0.048254296 -0.16390824 0.007151135 0.027734226 0.122973196 -0.18016134 -0.028946301 -0.088661976 0.14136818 0.11997616 -0.076883696 -0.0597571 -0.009231544 0.19048521 0.1164251 0.11590815 -0.05133126 -0.118348755 -0.0066368985 0.05303323 0.011388687 -0.12724695 -0.08503294 0.017044036
23 0.04961622 -0.025771754 0.16381405 -0.097403936 0.06663078 -0.061932076 -0.06895599 -0.0287185 -0.01338425 0.112062596 0.20710504 -0.107656166 -0.13896534 -0.1558036 -0.07987268 -0.09126306 0.13760358 0.15043303 -0.1088468 0.0028901019 0.08994677 0.08226813 0.19917741 0.12532894 -0.19099173 0.066554345 -0.16362414 -0.0016348839 -0.047126904 -0.07256579 -0.21033637 0.089060605 -0.115282536 0.034642298 -0.091382734 -0.06325119 0.21636808 -0.029936153 0.21723935 -0.020614363 0.048663087 0.045641307 -0.08921347 -0.18206382 -0.13052493 -0.038402993 0.097997025 -0.17877841 -0.13793737 0.022455472 0.13874134 -0.12519267 0.19834168 0.17221384 0.05284371 0.0059217997 0.07125063 -0.026611269 -0.17180818 0.13932739 0.1570365 -0.021757029 0.103891194 0.06798668 0.05346964 -0.1789819 0.032577567 0.07742296 -0.023606133 -0.12879296 0.107953176 0.03239566 -0.06413972 -0.0397082 -0.131112 -0.12967359 -0.07041899 -0.040620655 -0.17622896 0.22676803 0.078325815 -0.051729478 0.050629858 0.089494385 0.07440083 0.1432159 0.122744575 -0.06285467 0.016005956 0.1989505 -0.107477956 -0.071553506 -0.0616904 -0.044847447 0.18961953 -0.09778783 -0.15894142 -0.20917925 0.040677804 -0.13469754 -0.067221336 -0.09976771 0.0012658599 0.065489456 0.053601705 -0.17008135 0.0021776177 0.02964062 0.11649714 -0.18745331 -0.02589502 -0.07674156 0.13621226 0.13005783 -0.06837825 -0.05331787 -0.018045787 0.17972198 0.11155441 0.12018733 -0.050937872 -0.11694363 -0.005001088 0.06036569 0.02463845 -0.13287169 -0.08205624 0.020197239
22 0.08433202 -0.035430323 0.19466956 -0.050717086 0.01438088 -0.10715058 -0.04329651 -0.02798511 -0.09890925 0.09193865 0.19944908 -0.18972826 -0.05054732 -0.13873208 0.000294536 -0.17690265 0.018436108 0.064889066 -0.06745534 -0.05864613 -0.0071806377 0.043544 0.014456131 0.13198689 -0.20789714 0.06299938 -0.08652927 0.07266835 -0.0035758265 -0.030484555 -0.25732404 0.18290363 -0.0816574 -0.0019423369 -0.01092078 -0.04008596 0.18494359 0.1329543 0.106141716 -0.03380404 0.10909817 0.047714844 -0.07939786 0.017689208 -0.045947153 -0.0763284 0.06785982 -0.22255097 -0.058621228 0.1029195 0.22101669 -0.06962256 0.12046446 0.021599358 0.021051018 -0.058222007 0.11920275 -0.072184 -0.15735584 0.09952175 0.17346607 -0.06439416 0.15215115 -0.0076733283 0.009062309 -0.16878903 -0.062038675 0.002792238 0.039573837 -0.18399501 0.10141832 0.036670342 -0.1222548 -0.03240507 -0.055003427 -0.11073712 0.015380888 -0.09478968 -0.09088444 0.20311302 -0.013374476 -0.073410444 0.089574695 -0.031619236 0.032177653 0.121465795 0.1664434 -0.034172125 0.06518717 0.18658432 -0.11704816 0.040381193 0.013148392 0.05525898 0.04689882 0.045714796 -0.17860055 -0.2753742 0.020590775 -0.09840837 -0.05955902 -0.058616 -0.00242709 -0.0064324415 0.034686577 -0.1382897 -0.035012044 -0.02533893 0.061293133 0.011877995 0.032954037 -0.022525579 0.20432332 0.08923254 -0.109957494 -0.032548804 -0.028559595 0.19878723 0.08653301 0.2030513 0.051362824 -0.11743986 -0.052817456 0.06603816 0.07021552 -0.12666011 -0.096676536 0.11108919
18 0.096537076 -0.045292523 0.20218913 -0.047137406 0.019569324 -0.10645983 -0.03878401 -0.03357944 -0.10302835 0.096550256 0.19777343 -0.1952979 -0.04667535 -0.1378135 0.011256473 -0.18906721 0.016313605 0.06652379 -0.060045924 -0.054468445 0.0023366152 0.047020543 0.007367584 0.13446952 -0.21187574 0.07074546 -0.09371787 0.08103862 0.005690597 -0.026433391 -0.26343778 0.19704787 -0.069190815 0.006872165 -0.009204696 -0.050707098 0.19259968 0.13728803 0.10419538 -0.024490053 0.10187975 0.04807622 -0.09114998 0.026793845 -0.03180129 -0.08278412 0.06656842 -0.22079949 -0.06234607 0.11563213 0.21625426 -0.069455534 0.115893856 0.020959884 0.018590445 -0.044912986 0.115700856 -0.07644204 -0.16414389 0.107952386 0.16990873 -0.07063175 0.166031 0.0010386514 0.0091003645 -0.17112006 -0.053367615 -0.006281605 0.048224665 -0.18530928 0.1006141 0.048978437 -0.12557486 -0.029788623 -0.048923466 -0.10839602 0.024795143 -0.09485719 -0.08202888 0.19738986 -0.024930658 -0.075879514 0.082031436 -0.02942167 0.019329904 0.11921324 0.17431231 -0.03392818 0.075478256 0.1931683 -0.11584961 0.03659455 0.009539476 0.05287078 0.05529668 0.052827865 -0.19106917 -0.29015547 0.017698098 -0.08946017 -0.064025484 -0.059187178 0.005218206 -0.013710664 0.022275273 -0.1335758 -0.034006495 -0.03541244 0.06117144 0.028235322 0.02902094 -0.029888343 0.20361696 0.088948 -0.13036259 -0.026923696 -0.03002919 0.20352395 0.0828984 0.21745954 0.05347924 -0.12724696 -0.05470005 0.075834386 0.06703541 -0.1253037 -0.11688909 0.1292244
16 0.028789803 -0.016790384 0.1580866 -0.10898696 0.078567766 -0.04471396 -0.069757015 -0.03173572 -0.001012344 0.11901995 0.18949728 -0.093518674 -0.14465316 -0.14956817 -0.0993094 -0.084816486 0.16519533 0.17721415 -0.12046716 0.02512314 0.102093555 0.08932476 0.23230733 0.12726836 -0.18109109 0.07251873 -0.1703825 -0.028422374 -0.049670715 -0.08627136 -0.19604482 0.079021014 -0.13386658 0.05115503 -0.10618601 -0.059692673 0.21771093 -0.061473995 0.21904701 -0.013967262 0.03372574 0.05467235 -0.08003401 -0.21412098 -0.15228038 -0.024935417 0.09056119 -0.16983491 -0.14194378 -0.0130696725 0.12239388 -0.12103671 0.21666111 0.19869499 0.04210636 0.025507143 0.050214533 -0.011159459 -0.15806302 0.13007201 0.15925162 -0.019020878 0.0929055 0.082711786 0.06828449 -0.17206459 0.041557796 0.08326931 -0.031051308 -0.1260481 0.10288709 0.016939992 -0.060868334 -0.03564384 -0.13699704 -0.12779279 -0.086427905 -0.0341579 -0.18943968 0.23050743 0.09353509 -0.044620354 0.049066026 0.10924166 0.07663648 0.13643213 0.1115936 -0.06580055 0.0056246575 0.19334327 -0.09380782 -0.089043096 -0.073582985 -0.059938848 0.21428846 -0.1230965 -0.15999311 -0.19095637 0.04026408 -0.14271778 -0.06728402 -0.10788698 0.0014959781 0.08163364 0.06596082 -0.16158803 -0.00023974487 0.031094367 0.1323084 -0.21523134 -0.024049092 -0.08765331 0.13206913 0.12995116 -0.05353045 -0.061655987 -0.009098688 0.16359068 0.11616787 0.09076032 -0.06516891 -0.111306615 0.0074017057 0.056442857 0.005207548 -0.13449101 -0.08221409 -0.0012165796
13 0.082732916 -0.045993846 0.19778584 -0.040962312 0.015260616 -0.097784825 -0.044082295 -0.037269663 -0.10327849 0.09152185 0.20405872 -0.19453433 -0.03982112 -0.13507585 -0.0015952003 -0.18843283 0.0026698657 0.06625659 -0.067690894 -0.06257825 0.00083359756 0.03782214 0.0067970823 0.12851161 -0.21383907 0.065260954 -0.09553855 0.07330815 -0.0005979405 -0.026233071 -0.2624316 0.19761372 -0.070691004 -0.003916026 0.0012401791 -0.053225376 0.18705136 0.13911192 0.10662757 -0.035178617 0.11210991 0.04935077 -0.09417802 0.02002519 -0.04347873 -0.075477764 0.062488977 -0.23045352 -0.051699236 0.10618596 0.22375624 -0.06655849 0.11022698 0.034945987 0.008525585 -0.05645104 0.107280746 -0.07485628 -0.16864048 0.11314067 0.17544712 -0.077192314 0.16795477 0.0052264626 -0.0050542904 -0.16330697 -0.063946865 0.007056305 0.04977239 -0.18464005 0.088094145 0.034659114 -0.123889156 -0.030167403 -0.04618849 -0.10758987 0.015223914 -0.10166459 -0.086458474 0.19745784 -0.020491209 -0.07136229 0.09933215 -0.029207518 0.030191734 0.120248646 0.16248406 -0.02951124 0.061578076 0.18038432 -0.122223035 0.047876213 0.007383423 0.061787657 0.047710832 0.04010362 -0.1758389 -0.27246583 0.01886211 -0.095775604 -0.064608015 -0.05615892 0.00069981924 -0.012630658 0.023754906 -0.13029945 -0.027650857 -0.025639193 0.072838575 0.013814101 0.03746459 -0.019826632 0.20802037 0.08684183 -0.1112559 -0.029695505 -0.026310595 0.20082086 0.085861854 0.21513614 0.05869958 -0.117524646 -0.04167035 0.07362141 0.0691132 -0.124767005 -0.10207162 0.11163559
21 0.030508712 -0.006515629 0.16677122 -0.1144162 0.06996435 -0.05134054 -0.07437997 -0.04250823 0.0025596302 0.11841222 0.19300395 -0.089995064 -0.14292194 -0.15563181 -0.10378418 -0.074105315 0.15433592 0.17318194 -0.11923993 0.02665983 0.10568801 0.083967 0.23090139 0.12682872 -0.18965606 0.06512756 -0.17079307 -0.02074897 -0.059481855 -0.07984769 -0.19161278 0.070207894 -0.14205256 0.051407002 -0.106825784 -0.05709509 0.2223057 -0.048373904 0.2344076 -0.014404184 0.030362686 0.045174032 -0.07681701 -0.21334007 -0.15137488 -0.01857022 0.10392601 -0.17251062 -0.15296629 -0.009970958 0.11745855 -0.13452852 0.20111553 0.19574724 0.041955985 0.02663052 0.048530966 -0.020613741 -0.16764893 0.13688216 0.15048978 -0.0049934015 0.08656043 0.074645266 0.064011745 -0.17351268 0.037827387 0.07326012 -0.028900146 -0.12255557 0.10242409 0.020484377 -0.06438445 -0.038841777 -0.14464487 -0.12482361 -0.082676955 -0.032302313 -0.18410933 0.23552632 0.09184502 -0.03337588 0.059910066 0.103687346 0.069108866 0.13717718 0.09574221 -0.07101122 0.0044479347 0.17437461 -0.10080211 -0.09778 -0.07511166 -0.056831185 0.21044512 -0.12908366 -0.15874171 -0.18049979 0.039093196 -0.13935737 -0.076191 -0.100116044 0.003293294 0.08723846 0.05480303 -0.16220696 0.011948995 0.023803286 0.12453086 -0.21924952 -0.04065007 -0.0893503 0.13301466 0.12705094 -0.049976528 -0.06550477 -0.012954289 0.16730775 0.110979006 0.08551606 -0.059016906 -0.10736024 -0.0043126065 0.0628672 0.004695939 -0.1317718 -0.08414959 -0.0017929412
10 0.04917707 -0.01515609 0.1736012 -0.086823314 0.053408068 -0.07061552 -0.06595186 -0.028975429 -0.04051102 0.113599546 0.18746209 -0.13254616 -0.11289884 -0.14901198 -0.06286683 -0.115107924 0.10840035 0.13422307 -0.09792559 -0.004134501 0.0673206 0.07276524 0.15053426 0.12410123 -0.19570218 0.06714856 -0.14278843 0.010595011 -0.042634804 -0.061820358 -0.22054805 0.11091094 -0.118131995 0.027820712 -0.07209403 -0.06031348 0.2053209 0.007256366 0.17983584 -0.027590724 0.06632153 0.04899236 -0.0885283 -0.11975099 -0.115374 -0.040249374 0.08465006 -0.18932271 -0.12434171 0.02947859 0.16055697 -0.09917337 0.17651868 0.13303961 0.03892479 -0.007646791 0.08106479 -0.032124564 -0.15903783 0.12957439 0.1516842 -0.030639175 0.12224049 0.048955277 0.039326206 -0.17400588 0.005720461 0.0496041 0.0016547353 -0.13752994 0.09642921 0.034619 -0.08586589 -0.031665143 -0.116939634 -0.12176172 -0.0516042 -0.05566614 -0.15401234 0.21751605 0.049810063 -0.04895111 0.06989282 0.055776414 0.05741734 0.12544842 0.1338538 -0.04674965 0.025062826 0.18292144 -0.106767915 -0.051051356 -0.05290084 -0.01904267 0.14847256 -0.069901176 -0.16293564 -0.21488866 0.025177602 -0.118140444 -0.06243977 -0.08198767 0.002092059 0.057794876 0.055337932 -0.15413585 -0.004879122 0.0018277334 0.09968984 -0.13085759 -0.009403448 -0.06968913 0.14676471 0.11373297 -0.08693997 -0.03893696 -0.014942172 0.1765153 0.10669474 0.13932315 -0.027236268 -0.1163471 -0.010556406 0.06160094 0.03695371 -0.1374337 -0.09187051 0.04830432
15 0.037922133 -0.019672755 0.1602821 -0.101495996 0.05515248 -0.05287795 -0.06645776 -0.04008162 -0.013668082 0.11026648 0.19424401 -0.10446331 -0.13375552 -0.15601063 -0.08682945 -0.09301207 0.14839575 0.15836096 -0.10972448 0.0057163816 0.095753 0.08112824 0.1921228 0.1242165 -0.18666366 0.068010435 -0.16981341 -0.013851964 -0.042456675 -0.0855103 -0.19391964 0.08683494 -0.12569584 0.030327624 -0.09210558 -0.05446404 0.21161099 -0.03799859 0.20528656 -0.012949985 0.044760894 0.054565858 -0.08587594 -0.18373469 -0.13511337 -0.028032953 0.0960806 -0.17804535 -0.14159343 0.003987845 0.13675278 -0.11873579 0.19587514 0.17001377 0.048143025 0.012361092 0.06260531 -0.0265822 -0.16450465 0.12783812 0.16595843 -0.024636965 0.08785375 0.07241189 0.0612315 -0.17446868 0.031387456 0.06911735 -0.021216845 -0.13499013 0.096106656 0.017752822 -0.07157396 -0.03153013 -0.12116722 -0.12144623 -0.07194021 -0.033253912 -0.16726135 0.21953642 0.07636468 -0.04395584 0.05452544 0.08378149 0.07401053 0.14634012 0.1051669 -0.0657907 0.014384344 0.18835665 -0.10869025 -0.062497217 -0.06580592 -0.03825385 0.1928289 -0.10234404 -0.15492563 -0.19988294 0.027784117 -0.12654068 -0.071380764 -0.099609114 0.0075309547 0.06213664 0.06398622 -0.16412969 -0.0048790877 0.01527739 0.124184035 -0.19181079 -0.018326815 -0.08382678 0.1434803 0.124121726 -0.051701132 -0.05083137 -0.018549664 0.16692206 0.101068735 0.10603987 -0.044567555 -0.109629765 -0.007573826 0.057861798 0.009824032 -0.13437304 -0.079667546 0.006648886
12 0.077877775 -0.040544562 0.18960334 -0.055155616 0.0298702 -0.09444821 -0.042113703 -0.038314354 -0.07026753 0.09468043 0.19703744 -0.17406552 -0.06634235 -0.14341204 -0.013259163 -0.16238636 0.040886942 0.08386975 -0.06907387 -0.049178667 0.02461599 0.055506483 0.054104947 0.12972127 -0.2019689 0.07542116 -0.106168956 0.05476576 -0.008552189 -0.031277806 -0.2517668 0.16950445 -0.07865988 0.013004984 -0.024052115 -0.04583205 0.19553383 0.09504674 0.13530546 -0.028334593 0.092982985 0.055488735 -0.090292946 -0.026490439 -0.06691689 -0.06306131 0.0603887 -0.20276031 -0.07683005 0.08374485 0.1971878 -0.087142885 0.13160987 0.060626213 0.020154526 -0.040714014 0.09302083 -0.056468055 -0.16839658 0.111564 0.16056074 -0.059382316 0.14815553 0.008749675 0.0134985745 -0.17345475 -0.04050575 0.013441155 0.031332847 -0.16417299 0.091669105 0.034894317 -0.11053343 -0.0323776 -0.077625275 -0.11092549 -0.002685357 -0.07850201 -0.11342054 0.19506916 0.0051886253 -0.06763599 0.075418234 0.0039705033 0.04126918 0.11104828 0.16181177 -0.04299346 0.053198088 0.18792199 -0.1109743 0.016779307 -0.015659163 0.02941819 0.09135292 -0.0014341052 -0.17873168 -0.25951046 0.018480046 -0.10405765 -0.061376754 -0.07350828 0.0079163695 0.011015394 0.03731662 -0.14780332 -0.024937894 -0.011276282 0.08372358 -0.029553864 0.015898226 -0.045043923 0.18188895 0.088436015 -0.11449336 -0.027313225 -0.029106196 0.19715525 0.084118746 0.1858781 0.028042287 -0.117720105 -0.035971172 0.07137812 0.053835392 -0.125262 -0.097913615 0.094798066
